[
  { "biases": [], "weights": [], "layerPosition": 0 },
  {
    "biases": [
      18.99321030237931, 23.592834729837012, 27.378880721397366,
      25.427748107689265
    ],
    "weights": [
      [
        0.7907687341101955, 0.7808562110829402, -0.06514550911375692,
        -0.17622577082042043
      ],
      [
        2.7572641744773363, 6.44626319431416, -9.240309825061582,
        -7.418219540579978
      ],
      [
        -2.362053835339316, -0.5095327833033821, -4.192849031898317,
        -2.1662959997410516
      ],
      [
        -2.7115941620428847, -0.8726386942726503, -2.494674102875568,
        -0.09844685918257115
      ]
    ],
    "layerPosition": 1
  },
  {
    "biases": [20.656036635095436, 12.667129398605198, 10.257805121906888],
    "weights": [
      [
        -5.902464793963341, 4.027387718157757, 1.8461226258811396,
        -0.20938383040133268
      ],
      [
        -3.6151932895799956, -10.477741525362589, 1.0051031943968116,
        0.3064693645227748
      ],
      [
        0.47972407975406417, -3.983522711114571, -7.658467820482241,
        -1.1579065575502365
      ]
    ],
    "layerPosition": 2
  },
  {
    "biases": [6.071762141674252, -2.516640894089029, -5.376473858788577],
    "weights": [
      [0.21223018207730593, -1.1851017619659656, -10.105911003529291],
      [1.3278045012777642, -8.866986736287307, 6.727011531991627],
      [-4.535788033445542, 8.557714479560675, 4.597600356010735]
    ],
    "layerPosition": 3
  }
]
